Language model created by QuickLM on Sat Aug  3 13:04:58 EDT 2019
Copyright (c) 1996-2010 Carnegie Mellon University and Alexander I. Rudnicky

The model is in standard ARPA format, designed by Doug Paul while he was at MITRE.

The code that was used to produce this language model is available in Open Source.
Please visit http://www.speech.cs.cmu.edu/tools/ for more information

The (fixed) discount mass is 0.5. The backoffs are computed using the ratio method.
This model based on a corpus of 12 sentences and 27 words

\data\
ngram 1=27
ngram 2=39
ngram 3=31

\1-grams:
-0.9777 </s> -0.3010
-0.9777 <s> -0.2527
-2.0569 ALARM -0.2527
-2.0569 COMMANDS -0.2527
-2.0569 CONNECTED -0.2527
-2.0569 DYLAN -0.2527
-2.0569 EMAIL -0.2527
-2.0569 EVENTS -0.2972
-2.0569 GET -0.2933
-1.4548 IS -0.2855
-1.7559 LIGHT -0.2527
-2.0569 LIST -0.2972
-2.0569 MATTHEW -0.2527
-1.7559 ME -0.2484
-2.0569 MUSIC -0.2527
-2.0569 NEAR -0.2933
-2.0569 OFF -0.2933
-2.0569 ON -0.2933
-2.0569 PLAY -0.2972
-2.0569 SEND -0.2972
-2.0569 SET -0.2972
-2.0569 STEVEN -0.2527
-2.0569 THE -0.2972
-1.7559 TURN -0.2933
-2.0569 WEATHER -0.2527
-1.5798 WHERE -0.2855
-2.0569 WHO -0.2855

\2-grams:
-1.3802 <s> EVENTS 0.0000
-1.3802 <s> GET 0.0000
-1.3802 <s> LIST 0.0000
-1.3802 <s> PLAY 0.0000
-1.3802 <s> SEND 0.0000
-1.3802 <s> SET 0.0000
-1.0792 <s> TURN 0.0000
-0.9031 <s> WHERE 0.0000
-1.3802 <s> WHO 0.0000
-0.3010 ALARM </s> -0.3010
-0.3010 COMMANDS </s> -0.3010
-0.3010 CONNECTED </s> -0.3010
-0.3010 DYLAN </s> -0.3010
-0.3010 EMAIL </s> -0.3010
-0.3010 EVENTS NEAR 0.0000
-0.3010 GET ME -0.1761
-0.9031 IS CONNECTED 0.0000
-0.9031 IS DYLAN 0.0000
-0.9031 IS MATTHEW 0.0000
-0.9031 IS STEVEN 0.0000
-0.3010 LIGHT </s> -0.3010
-0.3010 LIST COMMANDS 0.0000
-0.3010 MATTHEW </s> -0.3010
-0.6021 ME </s> -0.3010
-0.6021 ME THE 0.0000
-0.3010 MUSIC </s> -0.3010
-0.3010 NEAR ME -0.1761
-0.3010 OFF LIGHT 0.0000
-0.3010 ON LIGHT 0.0000
-0.3010 PLAY MUSIC 0.0000
-0.3010 SEND EMAIL 0.0000
-0.3010 SET ALARM 0.0000
-0.3010 STEVEN </s> -0.3010
-0.3010 THE WEATHER 0.0000
-0.6021 TURN OFF 0.0000
-0.6021 TURN ON 0.0000
-0.3010 WEATHER </s> -0.3010
-0.3010 WHERE IS -0.0969
-0.3010 WHO IS -0.2430

\3-grams:
-0.3010 <s> EVENTS NEAR
-0.3010 <s> GET ME
-0.3010 <s> LIST COMMANDS
-0.3010 <s> PLAY MUSIC
-0.3010 <s> SEND EMAIL
-0.3010 <s> SET ALARM
-0.6021 <s> TURN OFF
-0.6021 <s> TURN ON
-0.3010 <s> WHERE IS
-0.3010 <s> WHO IS
-0.3010 EVENTS NEAR ME
-0.3010 GET ME THE
-0.3010 IS CONNECTED </s>
-0.3010 IS DYLAN </s>
-0.3010 IS MATTHEW </s>
-0.3010 IS STEVEN </s>
-0.3010 LIST COMMANDS </s>
-0.3010 ME THE WEATHER
-0.3010 NEAR ME </s>
-0.3010 OFF LIGHT </s>
-0.3010 ON LIGHT </s>
-0.3010 PLAY MUSIC </s>
-0.3010 SEND EMAIL </s>
-0.3010 SET ALARM </s>
-0.3010 THE WEATHER </s>
-0.3010 TURN OFF LIGHT
-0.3010 TURN ON LIGHT
-0.7782 WHERE IS DYLAN
-0.7782 WHERE IS MATTHEW
-0.7782 WHERE IS STEVEN
-0.3010 WHO IS CONNECTED

\end\
