Language model created by QuickLM on Sat Aug  3 13:04:58 EDT 2019
Copyright (c) 1996-2010 Carnegie Mellon University and Alexander I. Rudnicky

The model is in standard ARPA format, designed by Doug Paul while he was at MITRE.

The code that was used to produce this language model is available in Open Source.
Please visit http://www.speech.cs.cmu.edu/tools/ for more information

The (fixed) discount mass is 0.5. The backoffs are computed using the ratio method.
This model based on a corpus of 12 sentences and 27 words

\data\
ngram 1=27
ngram 2=39
ngram 3=31

\1-grams:
-0.9777 </s> -0.3010
-0.9777 <s> -0.2527
-2.0569 alarm -0.2527
-2.0569 commands -0.2527
-2.0569 connected -0.2527
-2.0569 dylan -0.2527
-2.0569 email -0.2527
-2.0569 events -0.2972
-2.0569 get -0.2933
-1.4548 is -0.2855
-1.7559 light -0.2527
-2.0569 list -0.2972
-2.0569 matthew -0.2527
-1.7559 me -0.2484
-2.0569 music -0.2527
-2.0569 near -0.2933
-2.0569 off -0.2933
-2.0569 on -0.2933
-2.0569 play -0.2972
-2.0569 send -0.2972
-2.0569 set -0.2972
-2.0569 steven -0.2527
-2.0569 the -0.2972
-1.7559 turn -0.2933
-2.0569 weather -0.2527
-1.5798 where -0.2855
-2.0569 who -0.2855

\2-grams:
-1.3802 <s> events 0.0000
-1.3802 <s> get 0.0000
-1.3802 <s> list 0.0000
-1.3802 <s> play 0.0000
-1.3802 <s> send 0.0000
-1.3802 <s> set 0.0000
-1.0792 <s> turn 0.0000
-0.9031 <s> where 0.0000
-1.3802 <s> who 0.0000
-0.3010 alarm </s> -0.3010
-0.3010 commands </s> -0.3010
-0.3010 connected </s> -0.3010
-0.3010 dylan </s> -0.3010
-0.3010 email </s> -0.3010
-0.3010 events near 0.0000
-0.3010 get me -0.1761
-0.9031 is connected 0.0000
-0.9031 is dylan 0.0000
-0.9031 is matthew 0.0000
-0.9031 is steven 0.0000
-0.3010 light </s> -0.3010
-0.3010 list commands 0.0000
-0.3010 matthew </s> -0.3010
-0.6021 me </s> -0.3010
-0.6021 me the 0.0000
-0.3010 music </s> -0.3010
-0.3010 near me -0.1761
-0.3010 off light 0.0000
-0.3010 on light 0.0000
-0.3010 play music 0.0000
-0.3010 send email 0.0000
-0.3010 set alarm 0.0000
-0.3010 steven </s> -0.3010
-0.3010 the weather 0.0000
-0.6021 turn off 0.0000
-0.6021 turn on 0.0000
-0.3010 weather </s> -0.3010
-0.3010 where is -0.0969
-0.3010 who is -0.2430

\3-grams:
-0.3010 <s> events near
-0.3010 <s> get me
-0.3010 <s> list commands
-0.3010 <s> play music
-0.3010 <s> send email
-0.3010 <s> set alarm
-0.6021 <s> turn off
-0.6021 <s> turn on
-0.3010 <s> where is
-0.3010 <s> who is
-0.3010 events near me
-0.3010 get me the
-0.3010 is connected </s>
-0.3010 is dylan </s>
-0.3010 is mattew </s>
-0.3010 is steven </s>
-0.3010 list commands </s>
-0.3010 me the weather
-0.3010 near me </s>
-0.3010 off light </s>
-0.3010 on light </s>
-0.3010 play music </s>
-0.3010 send email </s>
-0.3010 set alarm </s>
-0.3010 the weather </s>
-0.3010 turn off light
-0.3010 turn on light
-0.7782 where is dylan
-0.7782 where is matthew
-0.7782 where is steven
-0.3010 who is connected

\end\
